digraph Tree {
node [shape=box, style="filled, rounded", color="black", fontname=helvetica] ;
edge [fontname=helvetica] ;
0 [label="Age <= 27.5\nentropy = 0.907\nsamples = 537\nvalue = [364, 173]", fillcolor="#f1bd97"] ;
1 [label="Glucose <= 101.5\nentropy = 0.551\nsamples = 235\nvalue = [205, 30]", fillcolor="#e99356"] ;
0 -> 1 [labeldistance=2.5, labelangle=45, headlabel="True"] ;
2 [label="BMI <= 49.25\nentropy = 0.077\nsamples = 106\nvalue = [105, 1]", fillcolor="#e5823b"] ;
1 -> 2 ;
3 [label="entropy = 0.0\nsamples = 105\nvalue = [105, 0]", fillcolor="#e58139"] ;
2 -> 3 ;
4 [label="entropy = 0.0\nsamples = 1\nvalue = [0, 1]", fillcolor="#399de5"] ;
2 -> 4 ;
5 [label="Glucose <= 127.5\nentropy = 0.769\nsamples = 129\nvalue = [100, 29]", fillcolor="#eda672"] ;
1 -> 5 ;
6 [label="Glucose <= 113.5\nentropy = 0.552\nsamples = 78\nvalue = [68, 10]", fillcolor="#e99456"] ;
5 -> 6 ;
7 [label="BMI <= 32.9\nentropy = 0.73\nsamples = 49\nvalue = [39, 10]", fillcolor="#eca16c"] ;
6 -> 7 ;
8 [label="Pregnancies <= 2.5\nentropy = 0.25\nsamples = 24\nvalue = [23, 1]", fillcolor="#e68642"] ;
7 -> 8 ;
9 [label="entropy = 0.0\nsamples = 18\nvalue = [18, 0]", fillcolor="#e58139"] ;
8 -> 9 ;
10 [label="DiabetesPedigreeFunction <= 0.652\nentropy = 0.65\nsamples = 6\nvalue = [5, 1]", fillcolor="#ea9a61"] ;
8 -> 10 ;
11 [label="entropy = 0.0\nsamples = 5\nvalue = [5, 0]", fillcolor="#e58139"] ;
10 -> 11 ;
12 [label="entropy = 0.0\nsamples = 1\nvalue = [0, 1]", fillcolor="#399de5"] ;
10 -> 12 ;
13 [label="Insulin <= 135.5\nentropy = 0.943\nsamples = 25\nvalue = [16, 9]", fillcolor="#f4c8a8"] ;
7 -> 13 ;
14 [label="DiabetesPedigreeFunction <= 0.505\nentropy = 1.0\nsamples = 18\nvalue = [9, 9]", fillcolor="#ffffff"] ;
13 -> 14 ;
15 [label="BloodPressure <= 75.0\nentropy = 0.845\nsamples = 11\nvalue = [8, 3]", fillcolor="#efb083"] ;
14 -> 15 ;
16 [label="entropy = 0.0\nsamples = 8\nvalue = [8, 0]", fillcolor="#e58139"] ;
15 -> 16 ;
17 [label="entropy = 0.0\nsamples = 3\nvalue = [0, 3]", fillcolor="#399de5"] ;
15 -> 17 ;
18 [label="SkinThickness <= 15.0\nentropy = 0.592\nsamples = 7\nvalue = [1, 6]", fillcolor="#5aade9"] ;
14 -> 18 ;
19 [label="entropy = 0.0\nsamples = 1\nvalue = [1, 0]", fillcolor="#e58139"] ;
18 -> 19 ;
20 [label="entropy = 0.0\nsamples = 6\nvalue = [0, 6]", fillcolor="#399de5"] ;
18 -> 20 ;
21 [label="entropy = 0.0\nsamples = 7\nvalue = [7, 0]", fillcolor="#e58139"] ;
13 -> 21 ;
22 [label="entropy = 0.0\nsamples = 29\nvalue = [29, 0]", fillcolor="#e58139"] ;
6 -> 22 ;
23 [label="Glucose <= 135.5\nentropy = 0.953\nsamples = 51\nvalue = [32, 19]", fillcolor="#f4ccaf"] ;
5 -> 23 ;
24 [label="BloodPressure <= 77.0\nentropy = 0.779\nsamples = 13\nvalue = [3, 10]", fillcolor="#74baed"] ;
23 -> 24 ;
25 [label="BMI <= 28.75\nentropy = 0.439\nsamples = 11\nvalue = [1, 10]", fillcolor="#4da7e8"] ;
24 -> 25 ;
26 [label="entropy = 0.0\nsamples = 1\nvalue = [1, 0]", fillcolor="#e58139"] ;
25 -> 26 ;
27 [label="entropy = 0.0\nsamples = 10\nvalue = [0, 10]", fillcolor="#399de5"] ;
25 -> 27 ;
28 [label="entropy = 0.0\nsamples = 2\nvalue = [2, 0]", fillcolor="#e58139"] ;
24 -> 28 ;
29 [label="Insulin <= 137.5\nentropy = 0.79\nsamples = 38\nvalue = [29, 9]", fillcolor="#eda876"] ;
23 -> 29 ;
30 [label="SkinThickness <= 17.5\nentropy = 0.991\nsamples = 18\nvalue = [10, 8]", fillcolor="#fae6d7"] ;
29 -> 30 ;
31 [label="entropy = 0.0\nsamples = 5\nvalue = [0, 5]", fillcolor="#399de5"] ;
30 -> 31 ;
32 [label="Insulin <= 129.0\nentropy = 0.779\nsamples = 13\nvalue = [10, 3]", fillcolor="#eda774"] ;
30 -> 32 ;
33 [label="Glucose <= 186.5\nentropy = 0.439\nsamples = 11\nvalue = [10, 1]", fillcolor="#e88e4d"] ;
32 -> 33 ;
34 [label="entropy = 0.0\nsamples = 10\nvalue = [10, 0]", fillcolor="#e58139"] ;
33 -> 34 ;
35 [label="entropy = 0.0\nsamples = 1\nvalue = [0, 1]", fillcolor="#399de5"] ;
33 -> 35 ;
36 [label="entropy = 0.0\nsamples = 2\nvalue = [0, 2]", fillcolor="#399de5"] ;
32 -> 36 ;
37 [label="Glucose <= 171.0\nentropy = 0.286\nsamples = 20\nvalue = [19, 1]", fillcolor="#e68843"] ;
29 -> 37 ;
38 [label="entropy = 0.0\nsamples = 18\nvalue = [18, 0]", fillcolor="#e58139"] ;
37 -> 38 ;
39 [label="SkinThickness <= 22.5\nentropy = 1.0\nsamples = 2\nvalue = [1, 1]", fillcolor="#ffffff"] ;
37 -> 39 ;
40 [label="entropy = 0.0\nsamples = 1\nvalue = [1, 0]", fillcolor="#e58139"] ;
39 -> 40 ;
41 [label="entropy = 0.0\nsamples = 1\nvalue = [0, 1]", fillcolor="#399de5"] ;
39 -> 41 ;
42 [label="Insulin <= 155.5\nentropy = 0.998\nsamples = 302\nvalue = [159, 143]", fillcolor="#fcf2eb"] ;
0 -> 42 [labeldistance=2.5, labelangle=-45, headlabel="False"] ;
43 [label="BMI <= 26.3\nentropy = 0.962\nsamples = 231\nvalue = [142, 89]", fillcolor="#f5d0b5"] ;
42 -> 43 ;
44 [label="Glucose <= 122.5\nentropy = 0.494\nsamples = 37\nvalue = [33, 4]", fillcolor="#e89051"] ;
43 -> 44 ;
45 [label="entropy = 0.0\nsamples = 23\nvalue = [23, 0]", fillcolor="#e58139"] ;
44 -> 45 ;
46 [label="BloodPressure <= 73.0\nentropy = 0.863\nsamples = 14\nvalue = [10, 4]", fillcolor="#efb388"] ;
44 -> 46 ;
47 [label="entropy = 0.0\nsamples = 2\nvalue = [0, 2]", fillcolor="#399de5"] ;
46 -> 47 ;
48 [label="BMI <= 10.55\nentropy = 0.65\nsamples = 12\nvalue = [10, 2]", fillcolor="#ea9a61"] ;
46 -> 48 ;
49 [label="entropy = 0.0\nsamples = 1\nvalue = [0, 1]", fillcolor="#399de5"] ;
48 -> 49 ;
50 [label="Glucose <= 195.5\nentropy = 0.439\nsamples = 11\nvalue = [10, 1]", fillcolor="#e88e4d"] ;
48 -> 50 ;
51 [label="entropy = 0.0\nsamples = 10\nvalue = [10, 0]", fillcolor="#e58139"] ;
50 -> 51 ;
52 [label="entropy = 0.0\nsamples = 1\nvalue = [0, 1]", fillcolor="#399de5"] ;
50 -> 52 ;
53 [label="Insulin <= 24.0\nentropy = 0.989\nsamples = 194\nvalue = [109, 85]", fillcolor="#f9e3d3"] ;
43 -> 53 ;
54 [label="BMI <= 37.65\nentropy = 0.999\nsamples = 142\nvalue = [68, 74]", fillcolor="#eff7fd"] ;
53 -> 54 ;
55 [label="Glucose <= 93.0\nentropy = 0.991\nsamples = 108\nvalue = [60, 48]", fillcolor="#fae6d7"] ;
54 -> 55 ;
56 [label="DiabetesPedigreeFunction <= 0.862\nentropy = 0.337\nsamples = 16\nvalue = [15, 1]", fillcolor="#e78946"] ;
55 -> 56 ;
57 [label="entropy = 0.0\nsamples = 15\nvalue = [15, 0]", fillcolor="#e58139"] ;
56 -> 57 ;
58 [label="entropy = 0.0\nsamples = 1\nvalue = [0, 1]", fillcolor="#399de5"] ;
56 -> 58 ;
59 [label="BMI <= 34.1\nentropy = 1.0\nsamples = 92\nvalue = [45, 47]", fillcolor="#f7fbfe"] ;
55 -> 59 ;
60 [label="BMI <= 30.25\nentropy = 0.969\nsamples = 73\nvalue = [29, 44]", fillcolor="#bcdef6"] ;
59 -> 60 ;
61 [label="entropy = 0.948\nsamples = 30\nvalue = [19, 11]", fillcolor="#f4caac"] ;
60 -> 61 ;
62 [label="entropy = 0.782\nsamples = 43\nvalue = [10, 33]", fillcolor="#75bbed"] ;
60 -> 62 ;
63 [label="DiabetesPedigreeFunction <= 0.927\nentropy = 0.629\nsamples = 19\nvalue = [16, 3]", fillcolor="#ea995e"] ;
59 -> 63 ;
64 [label="entropy = 0.323\nsamples = 17\nvalue = [16, 1]", fillcolor="#e78945"] ;
63 -> 64 ;
65 [label="entropy = 0.0\nsamples = 2\nvalue = [0, 2]", fillcolor="#399de5"] ;
63 -> 65 ;
66 [label="Age <= 53.0\nentropy = 0.787\nsamples = 34\nvalue = [8, 26]", fillcolor="#76bbed"] ;
54 -> 66 ;
67 [label="Age <= 39.5\nentropy = 0.579\nsamples = 29\nvalue = [4, 25]", fillcolor="#59ade9"] ;
66 -> 67 ;
68 [label="Age <= 38.5\nentropy = 0.811\nsamples = 16\nvalue = [4, 12]", fillcolor="#7bbeee"] ;
67 -> 68 ;
69 [label="entropy = 0.592\nsamples = 14\nvalue = [2, 12]", fillcolor="#5aade9"] ;
68 -> 69 ;
70 [label="entropy = 0.0\nsamples = 2\nvalue = [2, 0]", fillcolor="#e58139"] ;
68 -> 70 ;
71 [label="entropy = 0.0\nsamples = 13\nvalue = [0, 13]", fillcolor="#399de5"] ;
67 -> 71 ;
72 [label="Age <= 66.0\nentropy = 0.722\nsamples = 5\nvalue = [4, 1]", fillcolor="#eca06a"] ;
66 -> 72 ;
73 [label="entropy = 0.0\nsamples = 4\nvalue = [4, 0]", fillcolor="#e58139"] ;
72 -> 73 ;
74 [label="entropy = 0.0\nsamples = 1\nvalue = [0, 1]", fillcolor="#399de5"] ;
72 -> 74 ;
75 [label="DiabetesPedigreeFunction <= 1.083\nentropy = 0.744\nsamples = 52\nvalue = [41, 11]", fillcolor="#eca36e"] ;
53 -> 75 ;
76 [label="Glucose <= 108.5\nentropy = 0.599\nsamples = 48\nvalue = [41, 7]", fillcolor="#e9975b"] ;
75 -> 76 ;
77 [label="entropy = 0.0\nsamples = 21\nvalue = [21, 0]", fillcolor="#e58139"] ;
76 -> 77 ;
78 [label="DiabetesPedigreeFunction <= 0.519\nentropy = 0.826\nsamples = 27\nvalue = [20, 7]", fillcolor="#eead7e"] ;
76 -> 78 ;
79 [label="Age <= 28.5\nentropy = 0.454\nsamples = 21\nvalue = [19, 2]", fillcolor="#e88e4e"] ;
78 -> 79 ;
80 [label="entropy = 0.0\nsamples = 2\nvalue = [0, 2]", fillcolor="#399de5"] ;
79 -> 80 ;
81 [label="entropy = 0.0\nsamples = 19\nvalue = [19, 0]", fillcolor="#e58139"] ;
79 -> 81 ;
82 [label="Age <= 28.5\nentropy = 0.65\nsamples = 6\nvalue = [1, 5]", fillcolor="#61b1ea"] ;
78 -> 82 ;
83 [label="entropy = 0.0\nsamples = 1\nvalue = [1, 0]", fillcolor="#e58139"] ;
82 -> 83 ;
84 [label="entropy = 0.0\nsamples = 5\nvalue = [0, 5]", fillcolor="#399de5"] ;
82 -> 84 ;
85 [label="entropy = 0.0\nsamples = 4\nvalue = [0, 4]", fillcolor="#399de5"] ;
75 -> 85 ;
86 [label="DiabetesPedigreeFunction <= 2.309\nentropy = 0.794\nsamples = 71\nvalue = [17, 54]", fillcolor="#77bced"] ;
42 -> 86 ;
87 [label="SkinThickness <= 33.5\nentropy = 0.734\nsamples = 68\nvalue = [14, 54]", fillcolor="#6cb6ec"] ;
86 -> 87 ;
88 [label="Insulin <= 175.5\nentropy = 0.952\nsamples = 35\nvalue = [13, 22]", fillcolor="#aed7f4"] ;
87 -> 88 ;
89 [label="entropy = 0.0\nsamples = 10\nvalue = [0, 10]", fillcolor="#399de5"] ;
88 -> 89 ;
90 [label="SkinThickness <= 31.0\nentropy = 0.999\nsamples = 25\nvalue = [13, 12]", fillcolor="#fdf5f0"] ;
88 -> 90 ;
91 [label="Glucose <= 149.5\nentropy = 0.949\nsamples = 19\nvalue = [7, 12]", fillcolor="#acd6f4"] ;
90 -> 91 ;
92 [label="Glucose <= 97.5\nentropy = 0.996\nsamples = 13\nvalue = [7, 6]", fillcolor="#fbede3"] ;
91 -> 92 ;
93 [label="entropy = 0.0\nsamples = 3\nvalue = [0, 3]", fillcolor="#399de5"] ;
92 -> 93 ;
94 [label="entropy = 0.881\nsamples = 10\nvalue = [7, 3]", fillcolor="#f0b78e"] ;
92 -> 94 ;
95 [label="entropy = 0.0\nsamples = 6\nvalue = [0, 6]", fillcolor="#399de5"] ;
91 -> 95 ;
96 [label="entropy = 0.0\nsamples = 6\nvalue = [6, 0]", fillcolor="#e58139"] ;
90 -> 96 ;
97 [label="Insulin <= 161.5\nentropy = 0.196\nsamples = 33\nvalue = [1, 32]", fillcolor="#3fa0e6"] ;
87 -> 97 ;
98 [label="entropy = 0.0\nsamples = 1\nvalue = [1, 0]", fillcolor="#e58139"] ;
97 -> 98 ;
99 [label="entropy = 0.0\nsamples = 32\nvalue = [0, 32]", fillcolor="#399de5"] ;
97 -> 99 ;
100 [label="entropy = 0.0\nsamples = 3\nvalue = [3, 0]", fillcolor="#e58139"] ;
86 -> 100 ;
}